{
  "sensorAngles": [
    -0.609218418598175,
    -0.27401623129844666,
    -0.10215682536363602,
    0.24569982290267944,
    0.6227862238883972
  ],
  "sensorRange": 90.76710297979062,
  "weights": [
    0.2285289317369461,
    -0.6775798797607422,
    -0.5680592060089111,
    1.1790850162506104,
    0.02401994913816452,
    -0.30799415707588196,
    0.2797051966190338,
    0.48535141348838806,
    -0.6589306592941284,
    -0.34420084953308105,
    0.48202696442604065,
    1.583540439605713,
    -1.0144585371017456,
    1.359290361404419,
    -0.6321064233779907,
    0.2110065370798111,
    1.1260004043579102,
    -0.659199595451355,
    1.2136539220809937,
    0.38558974862098694,
    0.20523783564567566,
    0.605065643787384,
    -1.1079894304275513,
    -1.136808156967163,
    -0.21026377379894257,
    -0.0899941697716713,
    0.8380729556083679,
    -1.9126882553100586,
    -0.7222579121589661,
    -1.5353026390075684,
    0.39868974685668945,
    -0.9107315540313721,
    -0.08138874173164368,
    -1.160711407661438,
    -0.01940588466823101,
    0.652682900428772,
    -1.0912200212478638,
    0.4896206855773926,
    0.3446773886680603,
    -0.28835099935531616,
    -0.0947231575846672,
    1.2098557949066162,
    1.2587518692016602,
    0.7165071964263916,
    0.3597595691680908,
    -0.15354470908641815,
    -0.7344561219215393,
    1.9087587594985962,
    1.060758352279663,
    -0.21327663958072662,
    -0.11473356932401657,
    2.4374921321868896,
    0.2825319766998291,
    1.6358448266983032,
    0.23413002490997314,
    1.1253701448440552,
    -0.8893460035324097,
    0.005750506650656462,
    -0.4484058618545532,
    1.8295905590057373,
    1.4680644273757935,
    -0.3247765898704529,
    -1.4575281143188477,
    -0.9599989652633667,
    -0.8210640549659729,
    -1.2428823709487915
  ],
  "biases": [
    -0.3741900622844696,
    -0.7054558396339417,
    0.15880745649337769
  ]
}